   1   1   1 -1.004946e+02 -1.004789e+02 -1.004946e+02 -1.004789e+02 -1.004789e+02 -1.004789e+02 -1.004946e+02 -1.004789e+02 -1.004946e+02
   2   1   1 -1.004946e+02 -1.004794e+02 -1.004946e+02 -1.004789e+02 -1.004789e+02 -1.004789e+02 -1.004946e+02 -1.004794e+02 -1.004946e+02
   3   1   1 -1.004946e+02 -1.004799e+02 -1.004946e+02 -1.004789e+02 -1.004789e+02 -1.004789e+02 -1.004946e+02 -1.004799e+02 -1.004946e+02
   4   1   1 -1.004946e+02 -1.004804e+02 -1.004946e+02 -1.004789e+02 -1.004789e+02 -1.004789e+02 -1.004946e+02 -1.004804e+02 -1.004946e+02
   5   1   1 -1.004946e+02 -1.004809e+02 -1.004946e+02 -1.004789e+02 -1.004789e+02 -1.004789e+02 -1.004946e+02 -1.004809e+02 -1.004946e+02
   6   1   1 -1.004946e+02 -1.004814e+02 -1.004946e+02 -1.004789e+02 -1.004789e+02 -1.004789e+02 -1.004946e+02 -1.004814e+02 -1.004946e+02
   7   1   1 -1.004946e+02 -1.004819e+02 -1.004946e+02 -1.004789e+02 -1.004789e+02 -1.004789e+02 -1.004946e+02 -1.004819e+02 -1.004946e+02
   8   1   1 -1.004946e+02 -1.004824e+02 -1.004946e+02 -1.004789e+02 -1.004789e+02 -1.004789e+02 -1.004946e+02 -1.004824e+02 -1.004946e+02
   9   1   1 -1.004946e+02 -1.004829e+02 -1.004946e+02 -1.004789e+02 -1.004789e+02 -1.004789e+02 -1.004946e+02 -1.004829e+02 -1.004946e+02
  10   1   1 -1.004946e+02 -1.004834e+02 -1.004946e+02 -1.004789e+02 -1.004789e+02 -1.004789e+02 -1.004946e+02 -1.004834e+02 -1.004946e+02
  11   1   1 -1.004946e+02 -1.004839e+02 -1.004946e+02 -1.004789e+02 -1.004789e+02 -1.004789e+02 -1.004946e+02 -1.004839e+02 -1.004946e+02
  12   1   1 -1.004946e+02 -1.004844e+02 -1.004946e+02 -1.004789e+02 -1.004789e+02 -1.004789e+02 -1.004946e+02 -1.004844e+02 -1.004946e+02
  13   1   1 -1.004946e+02 -1.004849e+02 -1.004946e+02 -1.004789e+02 -1.004789e+02 -1.004789e+02 -1.004946e+02 -1.004849e+02 -1.004946e+02
  14   1   1 -1.004946e+02 -1.004854e+02 -1.004946e+02 -1.004789e+02 -1.004789e+02 -1.004789e+02 -1.004946e+02 -1.004854e+02 -1.004946e+02
  15   1   1 -1.004946e+02 -1.004859e+02 -1.004946e+02 -1.004789e+02 -1.004789e+02 -1.004789e+02 -1.004946e+02 -1.004859e+02 -1.004946e+02
  16   1   1 -1.004946e+02 -1.004864e+02 -1.004946e+02 -1.004789e+02 -1.004789e+02 -1.004789e+02 -1.004946e+02 -1.004864e+02 -1.004946e+02
  17   1   1 -1.004946e+02 -1.004869e+02 -1.004946e+02 -1.004789e+02 -1.004789e+02 -1.004789e+02 -1.004946e+02 -1.004869e+02 -1.004946e+02
  18   1   1 -1.004946e+02 -1.004874e+02 -1.004946e+02 -1.004789e+02 -1.004789e+02 -1.004789e+02 -1.004946e+02 -1.004874e+02 -1.004946e+02
  19   1   1 -1.004946e+02 -1.004879e+02 -1.004946e+02 -1.004789e+02 -1.004789e+02 -1.004789e+02 -1.004946e+02 -1.004879e+02 -1.004946e+02
  20   1   1 -1.004946e+02 -1.004884e+02 -1.004945e+02 -1.004789e+02 -1.004789e+02 -1.004789e+02 -1.004946e+02 -1.004884e+02 -1.004945e+02
  21   1   1 -1.004946e+02 -1.004889e+02 -1.004940e+02 -1.004789e+02 -1.004789e+02 -1.004789e+02 -1.004946e+02 -1.004889e+02 -1.004940e+02
  22   1   1 -1.004946e+02 -1.004894e+02 -1.004935e+02 -1.004789e+02 -1.004789e+02 -1.004789e+02 -1.004946e+02 -1.004894e+02 -1.004935e+02
  23   1   1 -1.004946e+02 -1.004899e+02 -1.004930e+02 -1.004789e+02 -1.004789e+02 -1.004789e+02 -1.004946e+02 -1.004899e+02 -1.004930e+02
  24   1   1 -1.004946e+02 -1.004905e+02 -1.004925e+02 -1.004789e+02 -1.004789e+02 -1.004789e+02 -1.004946e+02 -1.004905e+02 -1.004925e+02
  25   1   1 -1.004946e+02 -1.004910e+02 -1.004920e+02 -1.004789e+02 -1.004789e+02 -1.004789e+02 -1.004946e+02 -1.004910e+02 -1.004920e+02
  26   1   1 -1.004946e+02 -1.004915e+02 -1.004915e+02 -1.004789e+02 -1.004789e+02 -1.004789e+02 -1.004946e+02 -1.004915e+02 -1.004915e+02
   1   2   1 -1.004946e+02 -1.004789e+02 -1.004946e+02 -1.004799e+02 -1.004789e+02 -1.004799e+02 -1.004946e+02 -1.004789e+02 -1.004946e+02
   2   2   1 -1.004946e+02 -1.004794e+02 -1.004946e+02 -1.004799e+02 -1.004789e+02 -1.004799e+02 -1.004946e+02 -1.004794e+02 -1.004946e+02
   3   2   1 -1.004946e+02 -1.004799e+02 -1.004946e+02 -1.004799e+02 -1.004789e+02 -1.004799e+02 -1.004946e+02 -1.004799e+02 -1.004946e+02
   4   2   1 -1.004946e+02 -1.004804e+02 -1.004946e+02 -1.004799e+02 -1.004789e+02 -1.004799e+02 -1.004946e+02 -1.004804e+02 -1.004946e+02
   5   2   1 -1.004946e+02 -1.004809e+02 -1.004946e+02 -1.004799e+02 -1.004789e+02 -1.004799e+02 -1.004946e+02 -1.004809e+02 -1.004946e+02
   6   2   1 -1.004946e+02 -1.004814e+02 -1.004946e+02 -1.004799e+02 -1.004789e+02 -1.004799e+02 -1.004946e+02 -1.004814e+02 -1.004946e+02
   7   2   1 -1.004946e+02 -1.004819e+02 -1.004946e+02 -1.004799e+02 -1.004789e+02 -1.004799e+02 -1.004946e+02 -1.004819e+02 -1.004946e+02
   8   2   1 -1.004946e+02 -1.004824e+02 -1.004946e+02 -1.004799e+02 -1.004789e+02 -1.004799e+02 -1.004946e+02 -1.004824e+02 -1.004946e+02
   9   2   1 -1.004946e+02 -1.004829e+02 -1.004946e+02 -1.004799e+02 -1.004789e+02 -1.004799e+02 -1.004946e+02 -1.004829e+02 -1.004946e+02
  10   2   1 -1.004946e+02 -1.004834e+02 -1.004946e+02 -1.004799e+02 -1.004789e+02 -1.004799e+02 -1.004946e+02 -1.004834e+02 -1.004946e+02
  11   2   1 -1.004946e+02 -1.004839e+02 -1.004946e+02 -1.004799e+02 -1.004789e+02 -1.004799e+02 -1.004946e+02 -1.004839e+02 -1.004946e+02
  12   2   1 -1.004946e+02 -1.004844e+02 -1.004946e+02 -1.004799e+02 -1.004789e+02 -1.004799e+02 -1.004946e+02 -1.004844e+02 -1.004946e+02
  13   2   1 -1.004946e+02 -1.004849e+02 -1.004946e+02 -1.004799e+02 -1.004789e+02 -1.004799e+02 -1.004946e+02 -1.004849e+02 -1.004946e+02
  14   2   1 -1.004946e+02 -1.004854e+02 -1.004946e+02 -1.004799e+02 -1.004789e+02 -1.004799e+02 -1.004946e+02 -1.004854e+02 -1.004946e+02
  15   2   1 -1.004946e+02 -1.004859e+02 -1.004946e+02 -1.004799e+02 -1.004789e+02 -1.004799e+02 -1.004946e+02 -1.004859e+02 -1.004946e+02
  16   2   1 -1.004946e+02 -1.004864e+02 -1.004946e+02 -1.004799e+02 -1.004789e+02 -1.004799e+02 -1.004946e+02 -1.004864e+02 -1.004946e+02
  17   2   1 -1.004946e+02 -1.004869e+02 -1.004946e+02 -1.004799e+02 -1.004799e+02 -1.004799e+02 -1.004946e+02 -1.004869e+02 -1.004946e+02
  18   2   1 -1.004946e+02 -1.004874e+02 -1.004946e+02 -1.004799e+02 -1.004799e+02 -1.004799e+02 -1.004946e+02 -1.004874e+02 -1.004946e+02
  19   2   1 -1.004946e+02 -1.004879e+02 -1.004946e+02 -1.004799e+02 -1.004799e+02 -1.004799e+02 -1.004946e+02 -1.004879e+02 -1.004946e+02
  20   2   1 -1.004946e+02 -1.004884e+02 -1.004945e+02 -1.004799e+02 -1.004799e+02 -1.004799e+02 -1.004946e+02 -1.004884e+02 -1.004945e+02
  21   2   1 -1.004946e+02 -1.004889e+02 -1.004940e+02 -1.004799e+02 -1.004799e+02 -1.004799e+02 -1.004946e+02 -1.004889e+02 -1.004940e+02
  22   2   1 -1.004946e+02 -1.004894e+02 -1.004935e+02 -1.004799e+02 -1.004799e+02 -1.004799e+02 -1.004946e+02 -1.004894e+02 -1.004935e+02
  23   2   1 -1.004946e+02 -1.004899e+02 -1.004930e+02 -1.004799e+02 -1.004799e+02 -1.004799e+02 -1.004946e+02 -1.004899e+02 -1.004930e+02
  24   2   1 -1.004946e+02 -1.004905e+02 -1.004925e+02 -1.004799e+02 -1.004799e+02 -1.004799e+02 -1.004946e+02 -1.004905e+02 -1.004925e+02
  25   2   1 -1.004946e+02 -1.004910e+02 -1.004920e+02 -1.004799e+02 -1.004799e+02 -1.004799e+02 -1.004946e+02 -1.004910e+02 -1.004920e+02
  26   2   1 -1.004946e+02 -1.004915e+02 -1.004915e+02 -1.004799e+02 -1.004799e+02 -1.004799e+02 -1.004946e+02 -1.004915e+02 -1.004915e+02
   1   3   1 -1.004946e+02 -1.004789e+02 -1.004946e+02 -1.004810e+02 -1.004789e+02 -1.004810e+02 -1.004946e+02 -1.004789e+02 -1.004946e+02
   2   3   1 -1.004946e+02 -1.004794e+02 -1.004946e+02 -1.004810e+02 -1.004789e+02 -1.004810e+02 -1.004946e+02 -1.004794e+02 -1.004946e+02
   3   3   1 -1.004946e+02 -1.004799e+02 -1.004946e+02 -1.004810e+02 -1.004789e+02 -1.004810e+02 -1.004946e+02 -1.004799e+02 -1.004946e+02
   4   3   1 -1.004946e+02 -1.004804e+02 -1.004946e+02 -1.004810e+02 -1.004789e+02 -1.004810e+02 -1.004946e+02 -1.004804e+02 -1.004946e+02
   5   3   1 -1.004946e+02 -1.004809e+02 -1.004946e+02 -1.004810e+02 -1.004789e+02 -1.004810e+02 -1.004946e+02 -1.004809e+02 -1.004946e+02
   6   3   1 -1.004946e+02 -1.004814e+02 -1.004946e+02 -1.004810e+02 -1.004789e+02 -1.004810e+02 -1.004946e+02 -1.004814e+02 -1.004946e+02
   7   3   1 -1.004946e+02 -1.004819e+02 -1.004946e+02 -1.004810e+02 -1.004789e+02 -1.004810e+02 -1.004946e+02 -1.004819e+02 -1.004946e+02
   8   3   1 -1.004946e+02 -1.004824e+02 -1.004946e+02 -1.004810e+02 -1.004789e+02 -1.004810e+02 -1.004946e+02 -1.004824e+02 -1.004946e+02
   9   3   1 -1.004946e+02 -1.004829e+02 -1.004946e+02 -1.004810e+02 -1.004789e+02 -1.004810e+02 -1.004946e+02 -1.004829e+02 -1.004946e+02
  10   3   1 -1.004946e+02 -1.004834e+02 -1.004946e+02 -1.004810e+02 -1.004789e+02 -1.004810e+02 -1.004946e+02 -1.004834e+02 -1.004946e+02
  11   3   1 -1.004946e+02 -1.004839e+02 -1.004946e+02 -1.004810e+02 -1.004789e+02 -1.004810e+02 -1.004946e+02 -1.004839e+02 -1.004946e+02
  12   3   1 -1.004946e+02 -1.004844e+02 -1.004946e+02 -1.004810e+02 -1.004789e+02 -1.004810e+02 -1.004946e+02 -1.004844e+02 -1.004946e+02
  13   3   1 -1.004946e+02 -1.004849e+02 -1.004946e+02 -1.004810e+02 -1.004789e+02 -1.004810e+02 -1.004946e+02 -1.004849e+02 -1.004946e+02
  14   3   1 -1.004946e+02 -1.004854e+02 -1.004946e+02 -1.004810e+02 -1.004789e+02 -1.004810e+02 -1.004946e+02 -1.004854e+02 -1.004946e+02
  15   3   1 -1.004946e+02 -1.004859e+02 -1.004946e+02 -1.004810e+02 -1.004789e+02 -1.004810e+02 -1.004946e+02 -1.004859e+02 -1.004946e+02
  16   3   1 -1.004946e+02 -1.004864e+02 -1.004946e+02 -1.004810e+02 -1.004789e+02 -1.004810e+02 -1.004946e+02 -1.004864e+02 -1.004946e+02
  17   3   1 -1.004946e+02 -1.004869e+02 -1.004946e+02 -1.004810e+02 -1.004810e+02 -1.004810e+02 -1.004946e+02 -1.004869e+02 -1.004946e+02
  18   3   1 -1.004946e+02 -1.004874e+02 -1.004946e+02 -1.004810e+02 -1.004810e+02 -1.004810e+02 -1.004946e+02 -1.004874e+02 -1.004946e+02
  19   3   1 -1.004946e+02 -1.004879e+02 -1.004946e+02 -1.004810e+02 -1.004810e+02 -1.004810e+02 -1.004946e+02 -1.004879e+02 -1.004946e+02
  20   3   1 -1.004946e+02 -1.004884e+02 -1.004945e+02 -1.004810e+02 -1.004810e+02 -1.004810e+02 -1.004946e+02 -1.004884e+02 -1.004945e+02
  21   3   1 -1.004946e+02 -1.004889e+02 -1.004940e+02 -1.004810e+02 -1.004810e+02 -1.004810e+02 -1.004946e+02 -1.004889e+02 -1.004940e+02
  22   3   1 -1.004946e+02 -1.004894e+02 -1.004935e+02 -1.004810e+02 -1.004810e+02 -1.004810e+02 -1.004946e+02 -1.004894e+02 -1.004935e+02
  23   3   1 -1.004946e+02 -1.004899e+02 -1.004930e+02 -1.004810e+02 -1.004810e+02 -1.004810e+02 -1.004946e+02 -1.004899e+02 -1.004930e+02
  24   3   1 -1.004946e+02 -1.004905e+02 -1.004925e+02 -1.004810e+02 -1.004810e+02 -1.004810e+02 -1.004946e+02 -1.004905e+02 -1.004925e+02
  25   3   1 -1.004946e+02 -1.004910e+02 -1.004920e+02 -1.004810e+02 -1.004810e+02 -1.004810e+02 -1.004946e+02 -1.004910e+02 -1.004920e+02
  26   3   1 -1.004946e+02 -1.004915e+02 -1.004915e+02 -1.004810e+02 -1.004810e+02 -1.004810e+02 -1.004946e+02 -1.004915e+02 -1.004915e+02
   1   4   1 -1.004946e+02 -1.004789e+02 -1.004946e+02 -1.004820e+02 -1.004789e+02 -1.004820e+02 -1.004946e+02 -1.004789e+02 -1.004946e+02
   2   4   1 -1.004946e+02 -1.004794e+02 -1.004946e+02 -1.004820e+02 -1.004789e+02 -1.004820e+02 -1.004946e+02 -1.004794e+02 -1.004946e+02
   3   4   1 -1.004946e+02 -1.004799e+02 -1.004946e+02 -1.004820e+02 -1.004789e+02 -1.004820e+02 -1.004946e+02 -1.004799e+02 -1.004946e+02
   4   4   1 -1.004946e+02 -1.004804e+02 -1.004946e+02 -1.004820e+02 -1.004789e+02 -1.004820e+02 -1.004946e+02 -1.004804e+02 -1.004946e+02
   5   4   1 -1.004946e+02 -1.004809e+02 -1.004946e+02 -1.004820e+02 -1.004789e+02 -1.004820e+02 -1.004946e+02 -1.004809e+02 -1.004946e+02
   6   4   1 -1.004946e+02 -1.004814e+02 -1.004946e+02 -1.004820e+02 -1.004789e+02 -1.004820e+02 -1.004946e+02 -1.004814e+02 -1.004946e+02
   7   4   1 -1.004946e+02 -1.004819e+02 -1.004946e+02 -1.004820e+02 -1.004789e+02 -1.004820e+02 -1.004946e+02 -1.004819e+02 -1.004946e+02
   8   4   1 -1.004946e+02 -1.004824e+02 -1.004946e+02 -1.004820e+02 -1.004789e+02 -1.004820e+02 -1.004946e+02 -1.004824e+02 -1.004946e+02
   9   4   1 -1.004946e+02 -1.004829e+02 -1.004946e+02 -1.004820e+02 -1.004789e+02 -1.004820e+02 -1.004946e+02 -1.004829e+02 -1.004946e+02
  10   4   1 -1.004946e+02 -1.004834e+02 -1.004946e+02 -1.004820e+02 -1.004789e+02 -1.004820e+02 -1.004946e+02 -1.004834e+02 -1.004946e+02
  11   4   1 -1.004946e+02 -1.004839e+02 -1.004946e+02 -1.004820e+02 -1.004789e+02 -1.004820e+02 -1.004946e+02 -1.004839e+02 -1.004946e+02
  12   4   1 -1.004946e+02 -1.004844e+02 -1.004946e+02 -1.004820e+02 -1.004789e+02 -1.004820e+02 -1.004946e+02 -1.004844e+02 -1.004946e+02
  13   4   1 -1.004946e+02 -1.004849e+02 -1.004946e+02 -1.004820e+02 -1.004789e+02 -1.004820e+02 -1.004946e+02 -1.004849e+02 -1.004946e+02
  14   4   1 -1.004946e+02 -1.004854e+02 -1.004946e+02 -1.004820e+02 -1.004789e+02 -1.004820e+02 -1.004946e+02 -1.004854e+02 -1.004946e+02
  15   4   1 -1.004946e+02 -1.004859e+02 -1.004946e+02 -1.004820e+02 -1.004789e+02 -1.004820e+02 -1.004946e+02 -1.004859e+02 -1.004946e+02
  16   4   1 -1.004946e+02 -1.004864e+02 -1.004946e+02 -1.004820e+02 -1.004789e+02 -1.004820e+02 -1.004946e+02 -1.004864e+02 -1.004946e+02
  17   4   1 -1.004946e+02 -1.004869e+02 -1.004946e+02 -1.004820e+02 -1.004820e+02 -1.004820e+02 -1.004946e+02 -1.004869e+02 -1.004946e+02
  18   4   1 -1.004946e+02 -1.004874e+02 -1.004946e+02 -1.004820e+02 -1.004820e+02 -1.004820e+02 -1.004946e+02 -1.004874e+02 -1.004946e+02
  19   4   1 -1.004946e+02 -1.004879e+02 -1.004946e+02 -1.004820e+02 -1.004820e+02 -1.004820e+02 -1.004946e+02 -1.004879e+02 -1.004946e+02
  20   4   1 -1.004946e+02 -1.004884e+02 -1.004945e+02 -1.004820e+02 -1.004820e+02 -1.004820e+02 -1.004946e+02 -1.004884e+02 -1.004945e+02
  21   4   1 -1.004946e+02 -1.004889e+02 -1.004940e+02 -1.004820e+02 -1.004820e+02 -1.004820e+02 -1.004946e+02 -1.004889e+02 -1.004940e+02
  22   4   1 -1.004946e+02 -1.004894e+02 -1.004935e+02 -1.004820e+02 -1.004820e+02 -1.004820e+02 -1.004946e+02 -1.004894e+02 -1.004935e+02
  23   4   1 -1.004946e+02 -1.004899e+02 -1.004930e+02 -1.004820e+02 -1.004820e+02 -1.004820e+02 -1.004946e+02 -1.004899e+02 -1.004930e+02
  24   4   1 -1.004946e+02 -1.004905e+02 -1.004925e+02 -1.004820e+02 -1.004820e+02 -1.004820e+02 -1.004946e+02 -1.004905e+02 -1.004925e+02
  25   4   1 -1.004946e+02 -1.004910e+02 -1.004920e+02 -1.004820e+02 -1.004820e+02 -1.004820e+02 -1.004946e+02 -1.004910e+02 -1.004920e+02
  26   4   1 -1.004946e+02 -1.004915e+02 -1.004915e+02 -1.004820e+02 -1.004820e+02 -1.004820e+02 -1.004946e+02 -1.004915e+02 -1.004915e+02
   1   5   1 -1.004946e+02 -1.004789e+02 -1.004946e+02 -1.004831e+02 -1.004789e+02 -1.004831e+02 -1.004946e+02 -1.004789e+02 -1.004946e+02
   2   5   1 -1.004946e+02 -1.004794e+02 -1.004946e+02 -1.004831e+02 -1.004789e+02 -1.004831e+02 -1.004946e+02 -1.004794e+02 -1.004946e+02
   3   5   1 -1.004946e+02 -1.004799e+02 -1.004946e+02 -1.004831e+02 -1.004789e+02 -1.004831e+02 -1.004946e+02 -1.004799e+02 -1.004946e+02
   4   5   1 -1.004946e+02 -1.004804e+02 -1.004946e+02 -1.004831e+02 -1.004789e+02 -1.004831e+02 -1.004946e+02 -1.004804e+02 -1.004946e+02
   5   5   1 -1.004946e+02 -1.004809e+02 -1.004946e+02 -1.004831e+02 -1.004789e+02 -1.004831e+02 -1.004946e+02 -1.004809e+02 -1.004946e+02
   6   5   1 -1.004946e+02 -1.004814e+02 -1.004946e+02 -1.004831e+02 -1.004789e+02 -1.004831e+02 -1.004946e+02 -1.004814e+02 -1.004946e+02
   7   5   1 -1.004946e+02 -1.004819e+02 -1.004946e+02 -1.004831e+02 -1.004789e+02 -1.004831e+02 -1.004946e+02 -1.004819e+02 -1.004946e+02
   8   5   1 -1.004946e+02 -1.004824e+02 -1.004946e+02 -1.004831e+02 -1.004789e+02 -1.004831e+02 -1.004946e+02 -1.004824e+02 -1.004946e+02
   9   5   1 -1.004946e+02 -1.004829e+02 -1.004946e+02 -1.004831e+02 -1.004789e+02 -1.004831e+02 -1.004946e+02 -1.004829e+02 -1.004946e+02
  10   5   1 -1.004946e+02 -1.004834e+02 -1.004946e+02 -1.004831e+02 -1.004789e+02 -1.004831e+02 -1.004946e+02 -1.004834e+02 -1.004946e+02
  11   5   1 -1.004946e+02 -1.004839e+02 -1.004946e+02 -1.004831e+02 -1.004789e+02 -1.004831e+02 -1.004946e+02 -1.004839e+02 -1.004946e+02
  12   5   1 -1.004946e+02 -1.004844e+02 -1.004946e+02 -1.004831e+02 -1.004789e+02 -1.004831e+02 -1.004946e+02 -1.004844e+02 -1.004946e+02
  13   5   1 -1.004946e+02 -1.004849e+02 -1.004946e+02 -1.004831e+02 -1.004789e+02 -1.004831e+02 -1.004946e+02 -1.004849e+02 -1.004946e+02
  14   5   1 -1.004946e+02 -1.004854e+02 -1.004946e+02 -1.004831e+02 -1.004789e+02 -1.004831e+02 -1.004946e+02 -1.004854e+02 -1.004946e+02
  15   5   1 -1.004946e+02 -1.004859e+02 -1.004946e+02 -1.004831e+02 -1.004789e+02 -1.004831e+02 -1.004946e+02 -1.004859e+02 -1.004946e+02
  16   5   1 -1.004946e+02 -1.004864e+02 -1.004946e+02 -1.004831e+02 -1.004789e+02 -1.004831e+02 -1.004946e+02 -1.004864e+02 -1.004946e+02
  17   5   1 -1.004946e+02 -1.004869e+02 -1.004946e+02 -1.004831e+02 -1.004831e+02 -1.004831e+02 -1.004946e+02 -1.004869e+02 -1.004946e+02
  18   5   1 -1.004946e+02 -1.004874e+02 -1.004946e+02 -1.004831e+02 -1.004831e+02 -1.004831e+02 -1.004946e+02 -1.004874e+02 -1.004946e+02
  19   5   1 -1.004946e+02 -1.004879e+02 -1.004946e+02 -1.004831e+02 -1.004831e+02 -1.004831e+02 -1.004946e+02 -1.004879e+02 -1.004946e+02
  20   5   1 -1.004946e+02 -1.004884e+02 -1.004945e+02 -1.004831e+02 -1.004831e+02 -1.004831e+02 -1.004946e+02 -1.004884e+02 -1.004945e+02
  21   5   1 -1.004946e+02 -1.004889e+02 -1.004940e+02 -1.004831e+02 -1.004831e+02 -1.004831e+02 -1.004946e+02 -1.004889e+02 -1.004940e+02
  22   5   1 -1.004946e+02 -1.004894e+02 -1.004935e+02 -1.004831e+02 -1.004831e+02 -1.004831e+02 -1.004946e+02 -1.004894e+02 -1.004935e+02
  23   5   1 -1.004946e+02 -1.004899e+02 -1.004930e+02 -1.004831e+02 -1.004831e+02 -1.004831e+02 -1.004946e+02 -1.004899e+02 -1.004930e+02
  24   5   1 -1.004946e+02 -1.004905e+02 -1.004925e+02 -1.004831e+02 -1.004831e+02 -1.004831e+02 -1.004946e+02 -1.004905e+02 -1.004925e+02
  25   5   1 -1.004946e+02 -1.004910e+02 -1.004920e+02 -1.004831e+02 -1.004831e+02 -1.004831e+02 -1.004946e+02 -1.004910e+02 -1.004920e+02
  26   5   1 -1.004946e+02 -1.004915e+02 -1.004915e+02 -1.004831e+02 -1.004831e+02 -1.004831e+02 -1.004946e+02 -1.004915e+02 -1.004915e+02
   1   6   1 -1.004946e+02 -1.004789e+02 -1.004946e+02 -1.004841e+02 -1.004789e+02 -1.004841e+02 -1.004946e+02 -1.004789e+02 -1.004946e+02
   2   6   1 -1.004946e+02 -1.004794e+02 -1.004946e+02 -1.004841e+02 -1.004789e+02 -1.004841e+02 -1.004946e+02 -1.004794e+02 -1.004946e+02
   3   6   1 -1.004946e+02 -1.004799e+02 -1.004946e+02 -1.004841e+02 -1.004789e+02 -1.004841e+02 -1.004946e+02 -1.004799e+02 -1.004946e+02
   4   6   1 -1.004946e+02 -1.004804e+02 -1.004946e+02 -1.004841e+02 -1.004789e+02 -1.004841e+02 -1.004946e+02 -1.004804e+02 -1.004946e+02
   5   6   1 -1.004946e+02 -1.004809e+02 -1.004946e+02 -1.004841e+02 -1.004789e+02 -1.004841e+02 -1.004946e+02 -1.004809e+02 -1.004946e+02
   6   6   1 -1.004946e+02 -1.004814e+02 -1.004946e+02 -1.004841e+02 -1.004789e+02 -1.004841e+02 -1.004946e+02 -1.004814e+02 -1.004946e+02
   7   6   1 -1.004946e+02 -1.004819e+02 -1.004946e+02 -1.004841e+02 -1.004789e+02 -1.004841e+02 -1.004946e+02 -1.004819e+02 -1.004946e+02
   8   6   1 -1.004946e+02 -1.004824e+02 -1.004946e+02 -1.004841e+02 -1.004789e+02 -1.004841e+02 -1.004946e+02 -1.004824e+02 -1.004946e+02
   9   6   1 -1.004946e+02 -1.004829e+02 -1.004946e+02 -1.004841e+02 -1.004789e+02 -1.004841e+02 -1.004946e+02 -1.004829e+02 -1.004946e+02
  10   6   1 -1.004946e+02 -1.004834e+02 -1.004946e+02 -1.004841e+02 -1.004789e+02 -1.004841e+02 -1.004946e+02 -1.004834e+02 -1.004946e+02
  11   6   1 -1.004946e+02 -1.004839e+02 -1.004946e+02 -1.004841e+02 -1.004789e+02 -1.004841e+02 -1.004946e+02 -1.004839e+02 -1.004946e+02
  12   6   1 -1.004946e+02 -1.004844e+02 -1.004946e+02 -1.004841e+02 -1.004789e+02 -1.004841e+02 -1.004946e+02 -1.004844e+02 -1.004946e+02
  13   6   1 -1.004946e+02 -1.004849e+02 -1.004946e+02 -1.004841e+02 -1.004789e+02 -1.004841e+02 -1.004946e+02 -1.004849e+02 -1.004946e+02
  14   6   1 -1.004946e+02 -1.004854e+02 -1.004946e+02 -1.004841e+02 -1.004789e+02 -1.004841e+02 -1.004946e+02 -1.004854e+02 -1.004946e+02
  15   6   1 -1.004946e+02 -1.004859e+02 -1.004946e+02 -1.004841e+02 -1.004789e+02 -1.004841e+02 -1.004946e+02 -1.004859e+02 -1.004946e+02
  16   6   1 -1.004946e+02 -1.004864e+02 -1.004946e+02 -1.004841e+02 -1.004789e+02 -1.004841e+02 -1.004946e+02 -1.004864e+02 -1.004946e+02
  17   6   1 -1.004946e+02 -1.004869e+02 -1.004946e+02 -1.004841e+02 -1.004841e+02 -1.004841e+02 -1.004946e+02 -1.004869e+02 -1.004946e+02
  18   6   1 -1.004946e+02 -1.004874e+02 -1.004946e+02 -1.004841e+02 -1.004841e+02 -1.004841e+02 -1.004946e+02 -1.004874e+02 -1.004946e+02
  19   6   1 -1.004946e+02 -1.004879e+02 -1.004946e+02 -1.004841e+02 -1.004841e+02 -1.004841e+02 -1.004946e+02 -1.004879e+02 -1.004946e+02
  20   6   1 -1.004946e+02 -1.004884e+02 -1.004945e+02 -1.004841e+02 -1.004841e+02 -1.004841e+02 -1.004946e+02 -1.004884e+02 -1.004945e+02
  21   6   1 -1.004946e+02 -1.004889e+02 -1.004940e+02 -1.004841e+02 -1.004841e+02 -1.004841e+02 -1.004946e+02 -1.004889e+02 -1.004940e+02
  22   6   1 -1.004946e+02 -1.004894e+02 -1.004935e+02 -1.004841e+02 -1.004841e+02 -1.004841e+02 -1.004946e+02 -1.004894e+02 -1.004935e+02
  23   6   1 -1.004946e+02 -1.004899e+02 -1.004930e+02 -1.004841e+02 -1.004841e+02 -1.004841e+02 -1.004946e+02 -1.004899e+02 -1.004930e+02
  24   6   1 -1.004946e+02 -1.004905e+02 -1.004925e+02 -1.004841e+02 -1.004841e+02 -1.004841e+02 -1.004946e+02 -1.004905e+02 -1.004925e+02
  25   6   1 -1.004946e+02 -1.004910e+02 -1.004920e+02 -1.004841e+02 -1.004841e+02 -1.004841e+02 -1.004946e+02 -1.004910e+02 -1.004920e+02
  26   6   1 -1.004946e+02 -1.004915e+02 -1.004915e+02 -1.004841e+02 -1.004841e+02 -1.004841e+02 -1.004946e+02 -1.004915e+02 -1.004915e+02
   1   7   1 -1.004946e+02 -1.004789e+02 -1.004946e+02 -1.004852e+02 -1.004789e+02 -1.004852e+02 -1.004946e+02 -1.004789e+02 -1.004946e+02
   2   7   1 -1.004946e+02 -1.004794e+02 -1.004946e+02 -1.004852e+02 -1.004789e+02 -1.004852e+02 -1.004946e+02 -1.004794e+02 -1.004946e+02
   3   7   1 -1.004946e+02 -1.004799e+02 -1.004946e+02 -1.004852e+02 -1.004789e+02 -1.004852e+02 -1.004946e+02 -1.004799e+02 -1.004946e+02
   4   7   1 -1.004946e+02 -1.004804e+02 -1.004946e+02 -1.004852e+02 -1.004789e+02 -1.004852e+02 -1.004946e+02 -1.004804e+02 -1.004946e+02
   5   7   1 -1.004946e+02 -1.004809e+02 -1.004946e+02 -1.004852e+02 -1.004789e+02 -1.004852e+02 -1.004946e+02 -1.004809e+02 -1.004946e+02
   6   7   1 -1.004946e+02 -1.004814e+02 -1.004946e+02 -1.004852e+02 -1.004789e+02 -1.004852e+02 -1.004946e+02 -1.004814e+02 -1.004946e+02
   7   7   1 -1.004946e+02 -1.004819e+02 -1.004946e+02 -1.004852e+02 -1.004789e+02 -1.004852e+02 -1.004946e+02 -1.004819e+02 -1.004946e+02
   8   7   1 -1.004946e+02 -1.004824e+02 -1.004946e+02 -1.004852e+02 -1.004789e+02 -1.004852e+02 -1.004946e+02 -1.004824e+02 -1.004946e+02
   9   7   1 -1.004946e+02 -1.004829e+02 -1.004946e+02 -1.004852e+02 -1.004789e+02 -1.004852e+02 -1.004946e+02 -1.004829e+02 -1.004946e+02
  10   7   1 -1.004946e+02 -1.004834e+02 -1.004946e+02 -1.004852e+02 -1.004789e+02 -1.004852e+02 -1.004946e+02 -1.004834e+02 -1.004946e+02
  11   7   1 -1.004946e+02 -1.004839e+02 -1.004946e+02 -1.004852e+02 -1.004789e+02 -1.004852e+02 -1.004946e+02 -1.004839e+02 -1.004946e+02
  12   7   1 -1.004946e+02 -1.004844e+02 -1.004946e+02 -1.004852e+02 -1.004789e+02 -1.004852e+02 -1.004946e+02 -1.004844e+02 -1.004946e+02
  13   7   1 -1.004946e+02 -1.004849e+02 -1.004946e+02 -1.004852e+02 -1.004789e+02 -1.004852e+02 -1.004946e+02 -1.004849e+02 -1.004946e+02
  14   7   1 -1.004946e+02 -1.004854e+02 -1.004946e+02 -1.004852e+02 -1.004789e+02 -1.004852e+02 -1.004946e+02 -1.004854e+02 -1.004946e+02
  15   7   1 -1.004946e+02 -1.004859e+02 -1.004946e+02 -1.004852e+02 -1.004789e+02 -1.004852e+02 -1.004946e+02 -1.004859e+02 -1.004946e+02
  16   7   1 -1.004946e+02 -1.004864e+02 -1.004946e+02 -1.004852e+02 -1.004789e+02 -1.004852e+02 -1.004946e+02 -1.004864e+02 -1.004946e+02
  17   7   1 -1.004946e+02 -1.004869e+02 -1.004946e+02 -1.004852e+02 -1.004852e+02 -1.004852e+02 -1.004946e+02 -1.004869e+02 -1.004946e+02
  18   7   1 -1.004946e+02 -1.004874e+02 -1.004946e+02 -1.004852e+02 -1.004852e+02 -1.004852e+02 -1.004946e+02 -1.004874e+02 -1.004946e+02
  19   7   1 -1.004946e+02 -1.004879e+02 -1.004946e+02 -1.004852e+02 -1.004852e+02 -1.004852e+02 -1.004946e+02 -1.004879e+02 -1.004946e+02
  20   7   1 -1.004946e+02 -1.004884e+02 -1.004945e+02 -1.004852e+02 -1.004852e+02 -1.004852e+02 -1.004946e+02 -1.004884e+02 -1.004945e+02
  21   7   1 -1.004946e+02 -1.004889e+02 -1.004940e+02 -1.004852e+02 -1.004852e+02 -1.004852e+02 -1.004946e+02 -1.004889e+02 -1.004940e+02
  22   7   1 -1.004946e+02 -1.004894e+02 -1.004935e+02 -1.004852e+02 -1.004852e+02 -1.004852e+02 -1.004946e+02 -1.004894e+02 -1.004935e+02
  23   7   1 -1.004946e+02 -1.004899e+02 -1.004930e+02 -1.004852e+02 -1.004852e+02 -1.004852e+02 -1.004946e+02 -1.004899e+02 -1.004930e+02
  24   7   1 -1.004946e+02 -1.004905e+02 -1.004925e+02 -1.004852e+02 -1.004852e+02 -1.004852e+02 -1.004946e+02 -1.004905e+02 -1.004925e+02
  25   7   1 -1.004946e+02 -1.004910e+02 -1.004920e+02 -1.004852e+02 -1.004852e+02 -1.004852e+02 -1.004946e+02 -1.004910e+02 -1.004920e+02
  26   7   1 -1.004946e+02 -1.004915e+02 -1.004915e+02 -1.004852e+02 -1.004852e+02 -1.004852e+02 -1.004946e+02 -1.004915e+02 -1.004915e+02
   1   8   1 -1.004946e+02 -1.004789e+02 -1.004946e+02 -1.004862e+02 -1.004789e+02 -1.004862e+02 -1.004946e+02 -1.004789e+02 -1.004946e+02
   2   8   1 -1.004946e+02 -1.004794e+02 -1.004946e+02 -1.004862e+02 -1.004789e+02 -1.004862e+02 -1.004946e+02 -1.004794e+02 -1.004946e+02
   3   8   1 -1.004946e+02 -1.004799e+02 -1.004946e+02 -1.004862e+02 -1.004789e+02 -1.004862e+02 -1.004946e+02 -1.004799e+02 -1.004946e+02
   4   8   1 -1.004946e+02 -1.004804e+02 -1.004946e+02 -1.004862e+02 -1.004789e+02 -1.004862e+02 -1.004946e+02 -1.004804e+02 -1.004946e+02
   5   8   1 -1.004946e+02 -1.004809e+02 -1.004946e+02 -1.004862e+02 -1.004789e+02 -1.004862e+02 -1.004946e+02 -1.004809e+02 -1.004946e+02
   6   8   1 -1.004946e+02 -1.004814e+02 -1.004946e+02 -1.004862e+02 -1.004789e+02 -1.004862e+02 -1.004946e+02 -1.004814e+02 -1.004946e+02
   7   8   1 -1.004946e+02 -1.004819e+02 -1.004946e+02 -1.004862e+02 -1.004789e+02 -1.004862e+02 -1.004946e+02 -1.004819e+02 -1.004946e+02
   8   8   1 -1.004946e+02 -1.004824e+02 -1.004946e+02 -1.004862e+02 -1.004789e+02 -1.004862e+02 -1.004946e+02 -1.004824e+02 -1.004946e+02
   9   8   1 -1.004946e+02 -1.004829e+02 -1.004946e+02 -1.004862e+02 -1.004789e+02 -1.004862e+02 -1.004946e+02 -1.004829e+02 -1.004946e+02
  10   8   1 -1.004946e+02 -1.004834e+02 -1.004946e+02 -1.004862e+02 -1.004789e+02 -1.004862e+02 -1.004946e+02 -1.004834e+02 -1.004946e+02
  11   8   1 -1.004946e+02 -1.004839e+02 -1.004946e+02 -1.004862e+02 -1.004789e+02 -1.004862e+02 -1.004946e+02 -1.004839e+02 -1.004946e+02
  12   8   1 -1.004946e+02 -1.004844e+02 -1.004946e+02 -1.004862e+02 -1.004789e+02 -1.004862e+02 -1.004946e+02 -1.004844e+02 -1.004946e+02
  13   8   1 -1.004946e+02 -1.004849e+02 -1.004946e+02 -1.004862e+02 -1.004789e+02 -1.004862e+02 -1.004946e+02 -1.004849e+02 -1.004946e+02
  14   8   1 -1.004946e+02 -1.004854e+02 -1.004946e+02 -1.004862e+02 -1.004789e+02 -1.004862e+02 -1.004946e+02 -1.004854e+02 -1.004946e+02
  15   8   1 -1.004946e+02 -1.004859e+02 -1.004946e+02 -1.004862e+02 -1.004789e+02 -1.004862e+02 -1.004946e+02 -1.004859e+02 -1.004946e+02
  16   8   1 -1.004946e+02 -1.004864e+02 -1.004946e+02 -1.004862e+02 -1.004789e+02 -1.004862e+02 -1.004946e+02 -1.004864e+02 -1.004946e+02
  17   8   1 -1.004946e+02 -1.004869e+02 -1.004946e+02 -1.004862e+02 -1.004862e+02 -1.004862e+02 -1.004946e+02 -1.004869e+02 -1.004946e+02
  18   8   1 -1.004946e+02 -1.004874e+02 -1.004946e+02 -1.004862e+02 -1.004862e+02 -1.004862e+02 -1.004946e+02 -1.004874e+02 -1.004946e+02
  19   8   1 -1.004946e+02 -1.004879e+02 -1.004946e+02 -1.004862e+02 -1.004862e+02 -1.004862e+02 -1.004946e+02 -1.004879e+02 -1.004946e+02
  20   8   1 -1.004946e+02 -1.004884e+02 -1.004945e+02 -1.004862e+02 -1.004862e+02 -1.004862e+02 -1.004946e+02 -1.004884e+02 -1.004945e+02
  21   8   1 -1.004946e+02 -1.004889e+02 -1.004940e+02 -1.004862e+02 -1.004862e+02 -1.004862e+02 -1.004946e+02 -1.004889e+02 -1.004940e+02
  22   8   1 -1.004946e+02 -1.004894e+02 -1.004935e+02 -1.004862e+02 -1.004862e+02 -1.004862e+02 -1.004946e+02 -1.004894e+02 -1.004935e+02
  23   8   1 -1.004946e+02 -1.004899e+02 -1.004930e+02 -1.004862e+02 -1.004862e+02 -1.004862e+02 -1.004946e+02 -1.004899e+02 -1.004930e+02
  24   8   1 -1.004946e+02 -1.004905e+02 -1.004925e+02 -1.004862e+02 -1.004862e+02 -1.004862e+02 -1.004946e+02 -1.004905e+02 -1.004925e+02
  25   8   1 -1.004946e+02 -1.004910e+02 -1.004920e+02 -1.004862e+02 -1.004862e+02 -1.004862e+02 -1.004946e+02 -1.004910e+02 -1.004920e+02
  26   8   1 -1.004946e+02 -1.004915e+02 -1.004915e+02 -1.004862e+02 -1.004862e+02 -1.004862e+02 -1.004946e+02 -1.004915e+02 -1.004915e+02
   1   9   1 -1.004946e+02 -1.004789e+02 -1.004946e+02 -1.004873e+02 -1.004789e+02 -1.004873e+02 -1.004946e+02 -1.004789e+02 -1.004946e+02
   2   9   1 -1.004946e+02 -1.004794e+02 -1.004946e+02 -1.004873e+02 -1.004794e+02 -1.004873e+02 -1.004946e+02 -1.004794e+02 -1.004946e+02
   3   9   1 -1.004946e+02 -1.004799e+02 -1.004946e+02 -1.004873e+02 -1.004799e+02 -1.004873e+02 -1.004946e+02 -1.004799e+02 -1.004946e+02
   4   9   1 -1.004946e+02 -1.004804e+02 -1.004946e+02 -1.004873e+02 -1.004804e+02 -1.004873e+02 -1.004946e+02 -1.004804e+02 -1.004946e+02
   5   9   1 -1.004946e+02 -1.004809e+02 -1.004946e+02 -1.004873e+02 -1.004809e+02 -1.004873e+02 -1.004946e+02 -1.004809e+02 -1.004946e+02
   6   9   1 -1.004946e+02 -1.004814e+02 -1.004946e+02 -1.004873e+02 -1.004814e+02 -1.004873e+02 -1.004946e+02 -1.004814e+02 -1.004946e+02
   7   9   1 -1.004946e+02 -1.004819e+02 -1.004946e+02 -1.004873e+02 -1.004819e+02 -1.004873e+02 -1.004946e+02 -1.004819e+02 -1.004946e+02
   8   9   1 -1.004946e+02 -1.004824e+02 -1.004946e+02 -1.004873e+02 -1.004824e+02 -1.004873e+02 -1.004946e+02 -1.004824e+02 -1.004946e+02
   9   9   1 -1.004946e+02 -1.004829e+02 -1.004946e+02 -1.004873e+02 -1.004829e+02 -1.004873e+02 -1.004946e+02 -1.004829e+02 -1.004946e+02
  10   9   1 -1.004946e+02 -1.004834e+02 -1.004946e+02 -1.004873e+02 -1.004834e+02 -1.004873e+02 -1.004946e+02 -1.004834e+02 -1.004946e+02
  11   9   1 -1.004946e+02 -1.004839e+02 -1.004946e+02 -1.004873e+02 -1.004839e+02 -1.004873e+02 -1.004946e+02 -1.004839e+02 -1.004946e+02
  12   9   1 -1.004946e+02 -1.004844e+02 -1.004946e+02 -1.004873e+02 -1.004844e+02 -1.004873e+02 -1.004946e+02 -1.004844e+02 -1.004946e+02
  13   9   1 -1.004946e+02 -1.004849e+02 -1.004946e+02 -1.004873e+02 -1.004849e+02 -1.004873e+02 -1.004946e+02 -1.004849e+02 -1.004946e+02
  14   9   1 -1.004946e+02 -1.004854e+02 -1.004946e+02 -1.004873e+02 -1.004854e+02 -1.004873e+02 -1.004946e+02 -1.004854e+02 -1.004946e+02
  15   9   1 -1.004946e+02 -1.004859e+02 -1.004946e+02 -1.004873e+02 -1.004859e+02 -1.004873e+02 -1.004946e+02 -1.004859e+02 -1.004946e+02
  16   9   1 -1.004946e+02 -1.004864e+02 -1.004946e+02 -1.004873e+02 -1.004864e+02 -1.004873e+02 -1.004946e+02 -1.004864e+02 -1.004946e+02
  17   9   1 -1.004946e+02 -1.004869e+02 -1.004946e+02 -1.004873e+02 -1.004796e+02 -1.004873e+02 -1.004946e+02 -1.004869e+02 -1.004946e+02
  18   9   1 -1.004946e+02 -1.004874e+02 -1.004946e+02 -1.004873e+02 -1.004801e+02 -1.004873e+02 -1.004946e+02 -1.004874e+02 -1.004946e+02
  19   9   1 -1.004946e+02 -1.004879e+02 -1.004946e+02 -1.004873e+02 -1.004806e+02 -1.004873e+02 -1.004946e+02 -1.004879e+02 -1.004946e+02
  20   9   1 -1.004946e+02 -1.004884e+02 -1.004945e+02 -1.004873e+02 -1.004811e+02 -1.004871e+02 -1.004946e+02 -1.004884e+02 -1.004945e+02
  21   9   1 -1.004946e+02 -1.004889e+02 -1.004940e+02 -1.004873e+02 -1.004816e+02 -1.004866e+02 -1.004946e+02 -1.004889e+02 -1.004940e+02
  22   9   1 -1.004946e+02 -1.004894e+02 -1.004935e+02 -1.004873e+02 -1.004821e+02 -1.004861e+02 -1.004946e+02 -1.004894e+02 -1.004935e+02
  23   9   1 -1.004946e+02 -1.004899e+02 -1.004930e+02 -1.004873e+02 -1.004826e+02 -1.004856e+02 -1.004946e+02 -1.004899e+02 -1.004930e+02
  24   9   1 -1.004946e+02 -1.004905e+02 -1.004925e+02 -1.004873e+02 -1.004831e+02 -1.004851e+02 -1.004946e+02 -1.004905e+02 -1.004925e+02
  25   9   1 -1.004946e+02 -1.004910e+02 -1.004920e+02 -1.004873e+02 -1.004836e+02 -1.004846e+02 -1.004946e+02 -1.004910e+02 -1.004920e+02
  26   9   1 -1.004946e+02 -1.004915e+02 -1.004915e+02 -1.004873e+02 -1.004841e+02 -1.004841e+02 -1.004946e+02 -1.004915e+02 -1.004915e+02
   1  10   1 -1.004946e+02 -1.004789e+02 -1.004946e+02 -1.004883e+02 -1.004789e+02 -1.004883e+02 -1.004946e+02 -1.004789e+02 -1.004946e+02
   2  10   1 -1.004946e+02 -1.004794e+02 -1.004946e+02 -1.004883e+02 -1.004794e+02 -1.004883e+02 -1.004946e+02 -1.004794e+02 -1.004946e+02
   3  10   1 -1.004946e+02 -1.004799e+02 -1.004946e+02 -1.004883e+02 -1.004799e+02 -1.004883e+02 -1.004946e+02 -1.004799e+02 -1.004946e+02
   4  10   1 -1.004946e+02 -1.004804e+02 -1.004946e+02 -1.004883e+02 -1.004804e+02 -1.004883e+02 -1.004946e+02 -1.004804e+02 -1.004946e+02
   5  10   1 -1.004946e+02 -1.004809e+02 -1.004946e+02 -1.004883e+02 -1.004809e+02 -1.004883e+02 -1.004946e+02 -1.004809e+02 -1.004946e+02
   6  10   1 -1.004946e+02 -1.004814e+02 -1.004946e+02 -1.004883e+02 -1.004814e+02 -1.004883e+02 -1.004946e+02 -1.004814e+02 -1.004946e+02
   7  10   1 -1.004946e+02 -1.004819e+02 -1.004946e+02 -1.004883e+02 -1.004819e+02 -1.004883e+02 -1.004946e+02 -1.004819e+02 -1.004946e+02
   8  10   1 -1.004946e+02 -1.004824e+02 -1.004946e+02 -1.004883e+02 -1.004824e+02 -1.004883e+02 -1.004946e+02 -1.004824e+02 -1.004946e+02
   9  10   1 -1.004946e+02 -1.004829e+02 -1.004946e+02 -1.004883e+02 -1.004829e+02 -1.004883e+02 -1.004946e+02 -1.004829e+02 -1.004946e+02
  10  10   1 -1.004946e+02 -1.004834e+02 -1.004946e+02 -1.004883e+02 -1.004834e+02 -1.004883e+02 -1.004946e+02 -1.004834e+02 -1.004946e+02
  11  10   1 -1.004946e+02 -1.004839e+02 -1.004946e+02 -1.004883e+02 -1.004839e+02 -1.004883e+02 -1.004946e+02 -1.004839e+02 -1.004946e+02
  12  10   1 -1.004946e+02 -1.004844e+02 -1.004946e+02 -1.004883e+02 -1.004844e+02 -1.004883e+02 -1.004946e+02 -1.004844e+02 -1.004946e+02
  13  10   1 -1.004946e+02 -1.004849e+02 -1.004946e+02 -1.004883e+02 -1.004849e+02 -1.004883e+02 -1.004946e+02 -1.004849e+02 -1.004946e+02
  14  10   1 -1.004946e+02 -1.004854e+02 -1.004946e+02 -1.004883e+02 -1.004854e+02 -1.004883e+02 -1.004946e+02 -1.004854e+02 -1.004946e+02
  15  10   1 -1.004946e+02 -1.004859e+02 -1.004946e+02 -1.004883e+02 -1.004859e+02 -1.004883e+02 -1.004946e+02 -1.004859e+02 -1.004946e+02
  16  10   1 -1.004946e+02 -1.004864e+02 -1.004946e+02 -1.004883e+02 -1.004864e+02 -1.004883e+02 -1.004946e+02 -1.004864e+02 -1.004946e+02
  17  10   1 -1.004946e+02 -1.004869e+02 -1.004946e+02 -1.004883e+02 -1.004806e+02 -1.004883e+02 -1.004946e+02 -1.004869e+02 -1.004946e+02
  18  10   1 -1.004946e+02 -1.004874e+02 -1.004946e+02 -1.004883e+02 -1.004812e+02 -1.004883e+02 -1.004946e+02 -1.004874e+02 -1.004946e+02
  19  10   1 -1.004946e+02 -1.004879e+02 -1.004946e+02 -1.004883e+02 -1.004817e+02 -1.004883e+02 -1.004946e+02 -1.004879e+02 -1.004946e+02
  20  10   1 -1.004946e+02 -1.004884e+02 -1.004945e+02 -1.004883e+02 -1.004822e+02 -1.004882e+02 -1.004946e+02 -1.004884e+02 -1.004945e+02
  21  10   1 -1.004946e+02 -1.004889e+02 -1.004940e+02 -1.004883e+02 -1.004827e+02 -1.004877e+02 -1.004946e+02 -1.004889e+02 -1.004940e+02
  22  10   1 -1.004946e+02 -1.004894e+02 -1.004935e+02 -1.004883e+02 -1.004832e+02 -1.004872e+02 -1.004946e+02 -1.004894e+02 -1.004935e+02
  23  10   1 -1.004946e+02 -1.004899e+02 -1.004930e+02 -1.004883e+02 -1.004837e+02 -1.004867e+02 -1.004946e+02 -1.004899e+02 -1.004930e+02
  24  10   1 -1.004946e+02 -1.004905e+02 -1.004925e+02 -1.004883e+02 -1.004842e+02 -1.004862e+02 -1.004946e+02 -1.004905e+02 -1.004925e+02
  25  10   1 -1.004946e+02 -1.004910e+02 -1.004920e+02 -1.004883e+02 -1.004847e+02 -1.004857e+02 -1.004946e+02 -1.004910e+02 -1.004920e+02
  26  10   1 -1.004946e+02 -1.004915e+02 -1.004915e+02 -1.004883e+02 -1.004852e+02 -1.004852e+02 -1.004946e+02 -1.004915e+02 -1.004915e+02
   1  11   1 -1.004936e+02 -1.004789e+02 -1.004936e+02 -1.004894e+02 -1.004789e+02 -1.004894e+02 -1.004946e+02 -1.004789e+02 -1.004946e+02
   2  11   1 -1.004936e+02 -1.004794e+02 -1.004936e+02 -1.004894e+02 -1.004794e+02 -1.004894e+02 -1.004946e+02 -1.004794e+02 -1.004946e+02
   3  11   1 -1.004936e+02 -1.004799e+02 -1.004936e+02 -1.004894e+02 -1.004799e+02 -1.004894e+02 -1.004946e+02 -1.004799e+02 -1.004946e+02
   4  11   1 -1.004936e+02 -1.004804e+02 -1.004936e+02 -1.004894e+02 -1.004804e+02 -1.004894e+02 -1.004946e+02 -1.004804e+02 -1.004946e+02
   5  11   1 -1.004936e+02 -1.004809e+02 -1.004936e+02 -1.004894e+02 -1.004809e+02 -1.004894e+02 -1.004946e+02 -1.004809e+02 -1.004946e+02
   6  11   1 -1.004936e+02 -1.004814e+02 -1.004936e+02 -1.004894e+02 -1.004814e+02 -1.004894e+02 -1.004946e+02 -1.004814e+02 -1.004946e+02
   7  11   1 -1.004936e+02 -1.004819e+02 -1.004936e+02 -1.004894e+02 -1.004819e+02 -1.004894e+02 -1.004946e+02 -1.004819e+02 -1.004946e+02
   8  11   1 -1.004936e+02 -1.004824e+02 -1.004936e+02 -1.004894e+02 -1.004824e+02 -1.004894e+02 -1.004946e+02 -1.004824e+02 -1.004946e+02
   9  11   1 -1.004936e+02 -1.004829e+02 -1.004936e+02 -1.004894e+02 -1.004829e+02 -1.004894e+02 -1.004946e+02 -1.004829e+02 -1.004946e+02
  10  11   1 -1.004936e+02 -1.004834e+02 -1.004936e+02 -1.004894e+02 -1.004834e+02 -1.004894e+02 -1.004946e+02 -1.004834e+02 -1.004946e+02
  11  11   1 -1.004936e+02 -1.004839e+02 -1.004936e+02 -1.004894e+02 -1.004839e+02 -1.004894e+02 -1.004946e+02 -1.004839e+02 -1.004946e+02
  12  11   1 -1.004936e+02 -1.004844e+02 -1.004936e+02 -1.004894e+02 -1.004844e+02 -1.004894e+02 -1.004946e+02 -1.004844e+02 -1.004946e+02
  13  11   1 -1.004936e+02 -1.004849e+02 -1.004936e+02 -1.004894e+02 -1.004849e+02 -1.004894e+02 -1.004946e+02 -1.004849e+02 -1.004946e+02
  14  11   1 -1.004936e+02 -1.004854e+02 -1.004936e+02 -1.004894e+02 -1.004854e+02 -1.004894e+02 -1.004946e+02 -1.004854e+02 -1.004946e+02
  15  11   1 -1.004936e+02 -1.004859e+02 -1.004936e+02 -1.004894e+02 -1.004859e+02 -1.004894e+02 -1.004946e+02 -1.004859e+02 -1.004946e+02
  16  11   1 -1.004936e+02 -1.004864e+02 -1.004936e+02 -1.004894e+02 -1.004864e+02 -1.004894e+02 -1.004946e+02 -1.004864e+02 -1.004946e+02
  17  11   1 -1.004936e+02 -1.004859e+02 -1.004936e+02 -1.004894e+02 -1.004817e+02 -1.004894e+02 -1.004946e+02 -1.004869e+02 -1.004946e+02
  18  11   1 -1.004936e+02 -1.004864e+02 -1.004936e+02 -1.004894e+02 -1.004822e+02 -1.004894e+02 -1.004946e+02 -1.004874e+02 -1.004946e+02
  19  11   1 -1.004936e+02 -1.004869e+02 -1.004936e+02 -1.004894e+02 -1.004827e+02 -1.004894e+02 -1.004946e+02 -1.004879e+02 -1.004946e+02
  20  11   1 -1.004936e+02 -1.004874e+02 -1.004934e+02 -1.004894e+02 -1.004832e+02 -1.004892e+02 -1.004946e+02 -1.004884e+02 -1.004945e+02
  21  11   1 -1.004936e+02 -1.004879e+02 -1.004929e+02 -1.004894e+02 -1.004837e+02 -1.004887e+02 -1.004946e+02 -1.004889e+02 -1.004940e+02
  22  11   1 -1.004936e+02 -1.004884e+02 -1.004924e+02 -1.004894e+02 -1.004842e+02 -1.004882e+02 -1.004946e+02 -1.004894e+02 -1.004935e+02
  23  11   1 -1.004936e+02 -1.004889e+02 -1.004919e+02 -1.004894e+02 -1.004847e+02 -1.004877e+02 -1.004946e+02 -1.004899e+02 -1.004930e+02
  24  11   1 -1.004936e+02 -1.004894e+02 -1.004914e+02 -1.004894e+02 -1.004852e+02 -1.004872e+02 -1.004946e+02 -1.004905e+02 -1.004925e+02
  25  11   1 -1.004936e+02 -1.004899e+02 -1.004909e+02 -1.004894e+02 -1.004857e+02 -1.004867e+02 -1.004946e+02 -1.004910e+02 -1.004920e+02
  26  11   1 -1.004936e+02 -1.004904e+02 -1.004904e+02 -1.004894e+02 -1.004862e+02 -1.004862e+02 -1.004946e+02 -1.004915e+02 -1.004915e+02
   1  12   1 -1.004925e+02 -1.004789e+02 -1.004925e+02 -1.004904e+02 -1.004789e+02 -1.004904e+02 -1.004946e+02 -1.004789e+02 -1.004946e+02
   2  12   1 -1.004925e+02 -1.004794e+02 -1.004925e+02 -1.004904e+02 -1.004794e+02 -1.004904e+02 -1.004946e+02 -1.004794e+02 -1.004946e+02
   3  12   1 -1.004925e+02 -1.004799e+02 -1.004925e+02 -1.004904e+02 -1.004799e+02 -1.004904e+02 -1.004946e+02 -1.004799e+02 -1.004946e+02
   4  12   1 -1.004925e+02 -1.004804e+02 -1.004925e+02 -1.004904e+02 -1.004804e+02 -1.004904e+02 -1.004946e+02 -1.004804e+02 -1.004946e+02
   5  12   1 -1.004925e+02 -1.004809e+02 -1.004925e+02 -1.004904e+02 -1.004809e+02 -1.004904e+02 -1.004946e+02 -1.004809e+02 -1.004946e+02
   6  12   1 -1.004925e+02 -1.004814e+02 -1.004925e+02 -1.004904e+02 -1.004814e+02 -1.004904e+02 -1.004946e+02 -1.004814e+02 -1.004946e+02
   7  12   1 -1.004925e+02 -1.004819e+02 -1.004925e+02 -1.004904e+02 -1.004819e+02 -1.004904e+02 -1.004946e+02 -1.004819e+02 -1.004946e+02
   8  12   1 -1.004925e+02 -1.004824e+02 -1.004925e+02 -1.004904e+02 -1.004824e+02 -1.004904e+02 -1.004946e+02 -1.004824e+02 -1.004946e+02
   9  12   1 -1.004925e+02 -1.004829e+02 -1.004925e+02 -1.004904e+02 -1.004829e+02 -1.004904e+